[{"sizes":[15,3,5,3,3],"layers":[{"v0":{},"e0":{},"t0":{},"v1":{},"e1":{},"t1":{},"v2":{},"e2":{},"t2":{},"v3":{},"e3":{},"t3":{},"v4":{},"e4":{},"t4":{}},{"0":{"bias":-6.138272285461426,"weights":{"v0":-23.307554244995117,"e0":0.6716334223747253,"t0":2.5865285396575928,"v1":-3.4092726707458496,"e1":0.3077910542488098,"t1":-0.26482388377189636,"v2":10.603355407714844,"e2":-0.5387110710144043,"t2":-1.8630073070526123,"v3":-15.609599113464355,"e3":-2.816401481628418,"t3":2.574345111846924,"v4":36.40690612792969,"e4":0.1339522898197174,"t4":33.896331787109375}},"1":{"bias":-5.466483116149902,"weights":{"v0":-4.576260566711426,"e0":0.4078247547149658,"t0":-1.7686299085617065,"v1":2.87274169921875,"e1":2.805999994277954,"t1":6.671422958374023,"v2":2.1042544841766357,"e2":4.336398601531982,"t2":1.9715988636016846,"v3":11.4987154006958,"e3":7.3055267333984375,"t3":7.867751121520996,"v4":1.7577582597732544,"e4":2.530688762664795,"t4":21.364192962646484}},"2":{"bias":1.2840638160705566,"weights":{"v0":-5.402016639709473,"e0":-1.8877720832824707,"t0":-1.186997652053833,"v1":-11.16917610168457,"e1":-2.6597516536712646,"t1":7.4206461906433105,"v2":-3.456084966659546,"e2":-2.4660909175872803,"t2":4.272167682647705,"v3":-27.763202667236328,"e3":-2.1392526626586914,"t3":-6.179152011871338,"v4":24.472625732421875,"e4":-6.533092498779297,"t4":-10.74181079864502}}},{"0":{"bias":0.3398333787918091,"weights":{"0":-0.22958987951278687,"1":-12.345264434814453,"2":12.917780876159668}},"1":{"bias":-0.6167698502540588,"weights":{"0":8.895627975463867,"1":-6.547483921051025,"2":-3.1949331760406494}},"2":{"bias":0.5370510816574097,"weights":{"0":7.273792743682861,"1":-12.497888565063477,"2":8.073729515075684}},"3":{"bias":-0.11563977599143982,"weights":{"0":14.18614673614502,"1":-6.977913856506348,"2":-8.685296058654785}},"4":{"bias":-1.963163137435913,"weights":{"0":21.842727661132812,"1":0.7666226625442505,"2":10.516815185546875}}},{"0":{"bias":6.75209379196167,"weights":{"0":-2.3823835849761963,"1":-2.5171849727630615,"2":-2.7427735328674316,"3":-3.4093194007873535,"4":-12.053410530090332}},"1":{"bias":6.857755184173584,"weights":{"0":-0.7016356587409973,"1":-6.148352146148682,"2":-6.719330310821533,"3":-6.855616569519043,"4":0.8934044241905212}},"2":{"bias":2.69355845451355,"weights":{"0":-8.856857299804688,"1":1.3113629817962646,"2":-5.198044300079346,"3":3.791339635848999,"4":0.015944352373480797}}},{"loading":{"bias":2.874220132827759,"weights":{"0":-5.086812973022461,"1":-6.079776287078857,"2":-6.427990913391113}},"tipping":{"bias":-3.305783271789551,"weights":{"0":3.6157970428466797,"1":-0.04393467679619789,"2":-0.026823850348591805}},"unexpected":{"bias":-5.374738693237305,"weights":{"0":-3.3474390506744385,"1":4.653609275817871,"2":2.0551908016204834}}}],"outputLookup":true,"inputLookup":true,"activation":"sigmoid","trainOpts":{"iterations":2000,"errorThresh":0.005,"log":false,"logPeriod":10,"learningRate":0.3,"momentum":0.1,"callbackPeriod":100,"beta1":0.9,"beta2":0.999,"epsilon":1e-8}}]